-0.7336697976105833
-0.7041052055347381
-0.7336471310181744
-0.7338453201866048
-0.730559966891142
-0.7333538181447433
-0.4484365869664946
-0.7337612320456713
-0.7377665228808432
-0.7341858640544832
-0.7079770002063461
-0.7342953663728309
-0.7338474991753727
-0.733647142924761
-0.7342800458762455
-0.5991653256506848
-0.7337848682809658
-0.729083313570275
-0.733682829577753
-0.3226573907780641
-0.7343072038660838
-0.7229822811720983
-0.706997204671762
-0.6039293632163372
-0.7342654169481241
-0.7336702171689223
-0.7334282413450649
-0.7349997470947068
-0.7333275446859924
-0.7320533319663716
-0.5108936203439957
-0.7336145899140437
-0.7334913515591092
-0.7332423195407294
-0.7340079232793537
-0.7335017404722877
-0.7334969442260444
-0.7334771471949325
-0.7336795778562415
-0.7339302014374915
-0.7336314078471718
-0.7608453532835558
-0.7114759936289109
-0.733895600745583
-0.7335325247421266
-0.46416873884225085
-0.6920929827078283
-0.6687097329044479
-0.6097785834562416
-0.7334306641866138
-0.7338653933579732
-0.7336704667586709
-0.7339002176552276
-0.7335132956309299
-0.7343294979319812
-0.733312945924586
-0.7334984506968182
-0.7021547150236084
-0.587723619015296
-0.7337582532148728
-0.7341995664205763
-0.7304496496306278
-0.7336165886624804
-0.7339252547743229
-0.7341829259546693
-0.7334282418265337
-0.7302108520230828
-0.7336477592004029
-0.7282645579787298
-0.7387840855387697
-0.6254759092375758
-0.7252604563135816
-0.7280146388031472
-0.5529535261032663
-0.7338979441366803
-0.7342965789516067
-0.7342795728140513
-0.7638130914643398
-0.7055526227364579
-0.7336471799312709
-0.7339857468879819
-0.7311321452122665
-0.7304391299055965
-0.3122444634939093
-0.7158467121379125
-0.7336714989500555
-0.733743315480063
-0.7279955170593969
-0.7343095968661711
-0.5331107372101686
-0.7333276875015136
-0.7103556447112547
-0.7339968921226556
-0.5657297134452516
-0.7342828203397346
-0.7338963909559756
-0.7342970597438926
-0.7336715314078376
-0.7336694377936406
-0.6502324362946639
-0.7339012326629858
-0.7306083731381319
-0.7251235226874629
-0.5965353040577932
-0.5904552171829004
-0.7343001826905312
-0.7273841460259164
-0.7062404857458825
-0.7333260083424118
-0.4353520693376821
-0.7337922462952584
-0.7313958534150659
-0.7336111901139614
-0.7118974448123422
-0.7219238687911532
-0.7334282418265337
-0.6145981393772049
-0.7326694397638288
-0.7313954550857366
-0.7330259186791619
-0.5041323393777865
-0.7338979442509667
-0.7334269641564444
-0.7342654321846245
-0.6423659283531008
-0.5277084372974875
-0.7339114494282205
-0.7343022296379055
-0.7342805439388043
-0.6271684240656161
-0.7341829307056352
-0.7342793902036088
-0.7340236176325552
-0.7336707344929699
-0.7235044814870703
-0.7252112840131811
-0.5941104846923244
-0.733669409558492
-0.7334259687813295
-0.7337052073441961
-0.6110714625314279
-0.7342764295037472
-0.7342828203397294
-0.7336715417194007
-0.6636414574855697
-0.5586726335025809
1.0
1.0
1.0
1.0
1.0
1.0
1.0
1.0
1.0
1.0
1.0
1.0
1.0
1.0
1.0
1.0
1.0
1.0
1.0
1.0
1.0
1.0
1.0
1.0
1.0
1.0
1.0
1.0
1.0
1.0
1.0
1.0
1.0
1.0
1.0
1.0
1.0
1.0
1.0
1.0
1.0
1.0
1.0
1.0
1.0
1.0
1.0
1.0
1.0
1.0
1.0
1.0
1.0
1.0
1.0
1.0
1.0
1.0
1.0
1.0
1.0
1.0
1.0
1.0
1.0
1.0
1.0
1.0
1.0
1.0
1.0
1.0
1.0
1.0
1.0
1.0
1.0
1.0
1.0
1.0
1.0
1.0
1.0
1.0
1.0
1.0
1.0
1.0
1.0
1.0
1.0
1.0
1.0
1.0
1.0
1.0
1.0
1.0
1.0
1.0
1.0
1.0
