-1.0
-1.0
-1.0
-1.0
-1.0
-1.0
-1.0
-1.0
-1.0
-1.0
-1.0
-1.0
-1.0
-1.0
-1.0
-1.0
-1.0
-1.0
-1.0
-1.0
-1.0
-1.0
-1.0
-1.0
-1.0
-1.0
-1.0
-1.0
-1.0
-1.0
-1.0
-1.0
-1.0
-1.0
-1.0
-1.0
-0.18310987423614028
-1.0
-1.0
-0.42708776061892784
-1.0
-1.0
-1.0
-1.0
-0.4944491711339692
-1.0
-1.0
-1.0
-1.0
-0.9546568386346626
-1.0
-1.0
-1.0
-1.0
-0.9045376034294758
-1.0
-1.0
-1.0
-1.0
-1.0
-1.0
-0.05055190360499914
-0.24881750278489173
-1.0
-1.0
-1.0
-1.0
-1.0
-1.0
-1.0
-1.0
-1.0
-1.0
-1.0
-0.26457779288914784
-0.41426311513153197
-1.0
-1.0
-1.0
-1.0
-1.0
-0.6937843926504499
-1.0
-1.0
-1.0
-0.07052888089758966
-0.47873226395674284
-1.0
-1.0
-1.0
-1.0
-1.0
-1.0
-1.0
-1.0
-1.0
-1.0
-1.0
-0.09729192855872731
-1.0
-1.0
-1.0
-1.0
-1.0
-1.0
-1.0
-1.0
-1.0
-1.0
-0.4814131070481392
-1.0
1.0
0.9576074820963633
1.0
1.0
1.0
1.0
0.9575864963032436
1.0
1.0
1.0
1.0
1.0
1.0
1.0
1.0
1.0
1.0
1.0
1.0
1.0
0.5375190940025824
1.0
1.0
1.0
1.0
0.5742928954060564
1.0
1.0
1.0
1.0
1.0
1.0
1.0
1.0
1.0
1.0
1.0
1.0
0.25721147795982063
1.0
1.0
1.0
1.0
1.0
1.0
1.0
1.0
1.0
0.5398721225133352
1.0
1.0
1.0
0.5566199468223645
0.9199328181187061
1.0
1.0
1.0
0.2559451073695977
1.0
1.0
1.0
1.0
1.0
1.0
1.0
1.0
1.0
1.0
1.0
1.0
1.0
0.26033458082581845
1.0
1.0
1.0
1.0
1.0
1.0
1.0
0.1380408160774599
1.0
1.0
1.0
1.0
1.0
1.0
1.0
0.8088392980800476
1.0
1.0
1.0
1.0
1.0
1.0
1.0
1.0
1.0
1.0
1.0
1.0
1.0
1.0
1.0
1.0
1.0
1.0
1.0
1.0
