-0.553905356329321
-0.6477420726776199
-0.030319355148571585
-0.5768085535377915
-0.6485067610395161
-0.6436960280417201
-0.6479229045872614
-0.6486012988890314
-0.6484863990025591
-0.6485207952622486
-0.6483917352233448
-0.531319068939916
-0.648268191277962
-0.6286337609868595
-0.648864511885485
-0.47434509384514323
-0.6048021828741764
-0.6478753906252699
-0.6485151113530141
-0.6480607996610528
-0.12854913654159042
-0.6117226968203944
-0.46869309331637893
-0.6399945123360915
-0.648512628273442
-0.6485111699857927
-0.6488855790366086
-0.6487651312664211
-0.6490060576670473
-0.6488661607380128
-0.6482341089059964
-0.47597928952618285
-0.6483976336733858
-0.5116450279958318
-0.649317270660049
-0.6485082641288035
-0.5800297143119543
-0.6488906732888546
-0.6303488312834605
-0.6433483858632805
-0.6485260313595493
-0.38122804894170637
-0.2905250511678269
-0.14780895186618798
-0.6521822924066962
-0.26766995440710917
-0.64861217612217
-0.40985220779119713
-0.577018928702264
-0.6485241131006444
-0.38869241228844664
-0.6485351580312115
-0.6424257934674404
-0.648466247067872
-0.6487692131462826
-0.6486884032033734
-0.6118748649396293
-0.6485333756338864
-0.648512929012901
-0.6485132272887341
-0.6779990229046982
-0.6485303275204882
-0.6486111644892905
-0.6083205348855143
-0.6233477140330067
-0.25344998930116636
-0.6483044738758584
-0.31857297515043054
-0.27938020472515984
-0.41516772413015157
-0.6513774792340346
-0.6489801474438461
-0.3476948965509622
-0.6344860144378601
-0.6484625566788645
-0.5431931690514573
-0.6413700451433496
-0.22953734806163728
-0.6485470267178806
-0.4630829073965401
-0.5288640611540861
-0.6056887523516923
-0.6486844671264373
-0.3696509091276482
-0.5881607740480838
-0.6470906516295873
-0.5243346348645104
-0.6512228820159315
-0.10369182098129748
-0.6416107621865891
-0.3831799544984169
-0.648537026389967
-0.6335822035972394
-0.623432633700185
-0.6485223599487753
-0.6484628485741257
-0.6490365777650616
-0.49626181755091014
-0.5826420567265992
-0.6457343300789529
-0.6485036501840878
-0.16685526154621938
-0.6486726509786618
-0.47098891745309207
-0.6134792853503712
-0.6482127832301586
-0.6485401912659208
-0.5322621876047485
-0.6481947575928797
-0.6446805206994409
-0.64829390763172
-0.6379725966265558
-0.2916974596543548
-0.6122319815632381
-0.3495849157278367
-0.6489716110515652
-0.648392444709237
-0.4905395184011324
-0.44081359223903593
-0.5095234324061804
-0.648231464687986
-0.6278554474779533
-0.6479676825797624
-0.25573884571948563
-0.6483456501753577
-0.21205903040623814
-0.6488859514448221
-0.6480188229522086
-0.6488859707155168
-0.6285630579072145
-0.6484957555827361
-0.6489132651293312
-0.6489063132655761
-0.6484896455861539
-0.6485278491783095
-0.5143303077617383
-0.6484885272827977
-0.6484659394116431
-0.3510934904582974
-0.4955099698379056
-0.6312480992461107
-0.45783332361510537
-0.6484813014246441
-0.6489924534656756
-0.628064483083616
-0.6468638615124223
-0.5108157263099863
-0.1771097905855511
-0.6480384738508833
-0.6153885514821669
-0.5206052714892118
-0.30420508867721935
-0.3832029378554532
-0.24875302134707294
-0.6487650453042719
-0.6481922644162611
-0.648470162149079
-0.1613978617801273
-0.3085803334835353
-0.17102193702488355
-0.3913125362372045
-0.49408711130671534
-0.5441459936986927
-0.648507816900858
-0.6486111644888894
-0.5858708372514996
-0.03297662393919898
-0.6473274372573995
-0.44359314555045243
-0.34591304966467734
-0.6017350984758549
-0.6485078757560099
-0.6468883194723369
-0.5837305659038076
-0.64852784922611
-0.6456580800809444
-0.6396916608866562
-0.6486650922874501
-0.6481821547899803
-0.6481570868551086
-0.6486926272338104
-0.6489129091999655
-0.24719355937923634
-0.5037944754351852
-0.6484743524230066
-0.6485275140672709
-0.5781272533328587
-0.5940570572786749
-0.6485105004457958
-0.4459699732397604
-0.6485259035724511
-0.6477118586373674
-0.6317511990066134
-0.32640750960920284
-0.6480352295639755
-0.3608567169074778
-0.6486106554801133
-0.648809164995725
-0.5670788131707865
-0.648470044550637
-0.6489400833685905
-0.4169792510181475
-0.6489614931762909
-0.646715251843539
-0.6489460535654118
-0.6485599544196308
-0.42455792107581874
-0.6199161253174686
-0.6484821029028317
-0.5978419056103299
-0.3545937266853309
-0.6123728907597885
-0.3419480540456682
-0.6098633591901512
-0.6488877082385377
-0.6180597391750291
-0.6481648015132092
-0.4043884397332844
-0.6484837017470113
-0.648157086452841
-0.11344965391028711
-0.6487760865912374
-0.6484455302160801
-0.6275219021644813
-0.48653463111885326
-0.5138765532996773
-0.5924350968994558
-0.6292359856181196
-0.5765295742222598
-0.649006996979145
-0.6489484898080033
-0.2511249630505933
-0.6480182847465376
-0.3660591387248904
-0.18435164801274392
-0.6469206950324802
-0.6489760729962872
-0.6269863797380416
-0.6484747980010008
-0.6482316660595188
-0.6365972399490851
-0.6485142500285764
-0.6489463164555206
-0.6216483580867302
-0.5254844656712874
-0.6485333759175136
-0.6485172442517737
-0.05625968013473434
-0.6481343474461636
-0.6412826971382887
-0.6486346791583519
-0.5322304523574255
-0.5563001454536075
-0.6489915557996979
-0.6488102177610802
-0.240524909753601
-0.6393209604121559
-0.6274192976636875
-0.6267924674492679
-0.6443953389237933
-0.7508063768036972
-0.6485109855579432
-0.5953078092333404
-0.6485229969518715
-0.6484870014818863
-0.6489760771944983
-0.6487482453185736
-0.49082334958562956
-0.6484154099297627
-0.6484010564567246
-0.6400985318430048
-0.3428118735649467
-0.6420204408824908
-0.6489487052801891
-0.6488632174924654
-0.6441174470866167
-0.1173900834858132
-0.29330234888040585
-0.6486914309570447
-0.4445865731204346
-0.6480201258316329
-0.6486505453611301
-0.6483936048657931
-0.648763808021983
-0.6486785853293008
-0.10632663498588155
-0.6486621278223362
-0.6481031655479875
-0.17342585894386034
-0.6485093740083336
-0.6485155904395687
-0.6693257943676509
-0.6485271301476163
-0.6484846255633466
-0.6485260320538028
-0.3192516081667506
-0.44997328592419295
-0.648758618485811
-0.5643689560761653
-0.5407252176463415
-0.6485132792581082
-0.648467261061711
-0.6489262440391965
-0.648464275645243
-0.6490092296439485
-0.6485814705349398
-0.6487944626731057
-0.6485831026027031
-0.4048433715309504
-0.6056238347108742
-0.6485364080315571
-0.6485209776618833
-0.39150804266874045
-0.5976711769667534
-0.541114521078096
-0.6067174732401237
-0.6486921033593085
-0.6482685804814068
-0.6485276644742278
-0.6484352973134796
-0.32022029573336874
-0.6485146959934938
-0.5601296163654179
-0.6487658681954122
-0.6484694172839325
-0.6404465072980836
-0.023830472656581763
-0.6484777933711131
-0.6484717724679444
-0.6481901082923299
-0.648975833472199
-0.5304671184686991
-0.6482681912799196
-0.6484870033304833
-0.6489072523270243
-0.648282694827909
-0.4400979049369117
-0.5176490042966146
-0.341421459201748
-0.6485244094152351
-0.6485273815420012
-0.2756012085850981
-0.647968884141136
-0.6483613995192278
-0.6484658748044736
-0.6484870014153813
-0.41848635054161365
-0.6110482429757305
-0.41409556232057576
-0.6462457729999682
-0.6489239737748849
-0.3624838169760019
-0.5025222314943827
-0.6485754053061965
-0.6460592693272278
-0.648954420894505
-0.647603530960126
-0.6470363082765938
-0.4234398184489945
-0.6489522479044206
-0.6489689691058188
-0.6484659394115765
-0.6488398352881912
-0.6487361684596336
-0.643362128626578
-0.6488454941676857
-0.648514285532275
-0.648474797959473
-0.3289432226147319
-0.6475070028542415
-0.3798867379843525
-0.6358881205936852
-0.5116750375564676
-0.6477127991043246
-0.6478976313436677
-0.6484812030040655
-0.649707496506109
-0.3763323202145237
-0.6484677146287728
-0.6485085292260786
-0.4603108153976669
-0.6315834540212599
-0.6462454534337516
-0.6099712290696434
-0.15793060366451991
-0.648947969602796
-0.5932276800573788
-0.6490318153349354
-0.6449541084260666
-0.6485151113511252
-0.6485141490590188
-0.2732320735307662
-0.6487644850485625
-0.6481862026114109
-0.39382388885437114
-0.5632582357213196
-0.6479760492127092
-0.6481365255741192
-0.6803820140633059
-0.6485844388475974
-0.6428333302613043
-0.6485280530056321
-0.6488874857033164
-0.6390947725259335
-0.5023638069576328
-0.6443093143729005
-0.6484313792905569
-0.6488596040623246
-0.5020725547331646
-0.6488091133622376
-0.6485227164079672
-0.6485194619902591
-0.6463665871942967
-0.6319722455182067
-0.648970486441951
-0.11514589685602618
-0.6488055739765237
-0.6487877889931303
-0.6433508174081158
-0.4777176232816324
-0.6484865038928818
-0.6477579857549041
-0.5694565792518321
-0.6484810950142813
-0.6488983161173592
-0.6485404561276582
-0.32396952090208264
-0.6484885756768599
-0.4541731685415628
-0.6214850489454261
-0.3936664208522599
-0.6441085805952781
-0.5308643243765633
-0.6484886435110986
-0.6488325508320982
-0.6487483062615903
-0.648521835357564
-0.6499413610540118
-0.6488609794814668
-0.6487636924491491
-0.6489709969006863
-0.648948705150487
-0.6484475461563559
-0.6224437800699971
-0.6485408780771278
-0.648457320242487
-0.6488858745848182
-0.6484743225351847
-0.648521835581014
-0.648765100988919
-0.6271962955078068
-0.6433995430903029
-0.6394385885220196
-0.6436996044534413
-0.5797053707401296
-0.6393326338744214
-0.6484870687652923
-0.6485369987860978
-0.6484845585419312
-0.6331078333827639
-0.5316908756066961
-0.6001900919315827
-0.648604036064083
-0.6485481123027887
-0.47825207720337787
-0.6479321871291597
-0.64853117538232
-0.6243076145127182
-0.6485262708824436
-0.6485137729979569
-0.488303583454127
-0.6481079977783223
-0.648235148200001
-0.6486766154785835
-0.13614833512856733
-0.6485527352583021
-0.6489703096394049
-0.27256337081184057
-0.6464674603769809
-0.6487661533520485
-0.6489663474285668
-0.6484883383811398
-0.6485409053240655
-0.6489436998087497
-0.648979978366451
-0.6487935647446372
-0.6364545393803629
-0.6484885272821882
-0.6485107548070369
-0.6485155622385783
-0.6187237099983297
-0.6453695304119591
-0.3739757821571573
-0.648472617296288
-0.6480828878314244
-0.6482720112240482
-0.5399634304773935
-0.6484888034573002
-0.6485363380527426
-0.17394451127619187
-0.5388498536280601
-0.6370185891406765
-0.6073311454358237
-0.6489509960271489
-0.6484658682748152
-0.6477296879862031
-0.6488775245151446
-0.6488054234105407
-0.6347237602528076
-0.2821984097904424
-0.5536616210636075
-0.6481096214207915
-0.5301713505786914
-0.6476187522886034
-0.6484672034621373
-0.6488775245151206
-0.30934405914636637
-0.6485482203987462
-0.6482262292363316
-0.6486881639981177
-0.6483472607794578
-0.6488099913774222
-0.6474359959128245
-0.6484649328251959
-0.626656829354837
-0.5668107103221063
-0.6489366714254499
-0.6487266606201513
-0.565846101108885
-0.5123699029223121
-0.6489704842451461
-0.6484626005815763
-0.6567170776238341
-0.648529035041673
-0.6487634824971116
-0.6484701846696973
-0.04605887949481728
-0.6247346587274804
-0.6487176028696381
-0.6484608503700503
-0.6449482951079613
-0.5972627421246528
-0.6062436378240376
-0.6452477516334938
-0.6315851543315404
-0.6481596427079612
-0.5180074890016855
-0.6394809472430601
-0.41069089970517925
-0.6478492210876521
-0.5879981053182589
-0.5812335032589451
-0.6482307651886374
-0.6485276488583623
-0.3668344511928515
-0.5754048860307541
-0.6477139510997562
-0.35708049418604554
-0.6484994219598991
-0.6485444926101446
-0.64804538279388
-0.6485369987861058
-0.6481551011593083
-0.6484684540840184
-0.6485211714491662
-0.2907273954413567
-0.6483797101866008
-0.6484840867193586
-0.6479846215086222
-0.6485661838299944
-0.5835892759806104
-0.6485270743199645
-0.6484654349045421
-0.6485218446453174
-0.6487472417609575
-0.4978207046654688
-0.6485136024787866
-0.6482593542811175
-0.6484675408628764
-0.6487638858730312
-0.0831633510623378
-0.6488876965913979
-0.5873072550818049
-0.6482562373561046
-0.5891705589985031
-0.6484798569801283
-0.6454958875833136
-0.6489277960340976
-0.6484724488858341
-0.6242502216100547
-0.6331991685991898
-0.34707639490186315
-0.6485403495736565
-0.33120907974723834
-0.6341395188965878
-0.6484837017470114
-0.6485385665710444
-0.6489663475448895
-0.6487998090013436
-0.6069609123995868
-0.648524064790842
-0.6459612513669453
-0.6486912700354246
-0.6487834809327
-0.6488051551882316
-0.6484766764295266
-0.520574029102021
-0.6481507584050693
-0.5604019559116317
-0.6488983261872507
-0.6481539158415406
-0.6476677836305934
-0.6489491900409539
-0.3519399112535708
-0.6487640372538908
-0.6483151658011953
-0.6485105678542749
-0.052610386981894616
-0.44951570214295966
-0.47489833702964546
-0.6485279100753153
-0.6486401894668081
-0.066131126875711
-0.6483830922945986
-0.648877113693706
-0.6485128883181169
-0.648717602873755
-0.6489766068472029
-0.6487453486020056
-0.6481814488244161
1.0
1.0
1.0
1.0
1.0
1.0
1.0
1.0
1.0
1.0
1.0
1.0
1.0
1.0
1.0
1.0
1.0
1.0
1.0
1.0
1.0
1.0
1.0
1.0
1.0
1.0
1.0
1.0
1.0
1.0
1.0
1.0
1.0
1.0
1.0
1.0
1.0
1.0
1.0
1.0
1.0
1.0
1.0
1.0
1.0
1.0
1.0
1.0
1.0
1.0
1.0
1.0
1.0
1.0
1.0
1.0
1.0
1.0
1.0
1.0
1.0
1.0
1.0
1.0
1.0
1.0
1.0
1.0
1.0
1.0
1.0
1.0
1.0
0.3515322567321345
1.0
1.0
1.0
1.0
1.0
1.0
1.0
1.0
1.0
1.0
1.0
1.0
1.0
1.0
1.0
1.0
1.0
1.0
1.0
1.0
1.0
1.0
1.0
1.0
1.0
1.0
1.0
1.0
1.0
1.0
1.0
1.0
1.0
1.0
1.0
1.0
1.0
1.0
1.0
1.0
1.0
1.0
1.0
1.0
1.0
1.0
1.0
1.0
1.0
1.0
1.0
1.0
1.0
1.0
1.0
1.0
1.0
1.0
1.0
1.0
1.0
1.0
1.0
1.0
1.0
1.0
1.0
1.0
1.0
1.0
1.0
1.0
1.0
1.0
1.0
1.0
1.0
1.0
1.0
1.0
1.0
1.0
1.0
1.0
1.0
1.0
1.0
1.0
1.0
1.0
1.0
1.0
1.0
1.0
1.0
1.0
1.0
1.0
1.0
1.0
1.0
1.0
1.0
1.0
1.0
1.0
1.0
1.0
1.0
1.0
1.0
1.0
1.0
1.0
1.0
1.0
1.0
1.0
1.0
1.0
1.0
1.0
1.0
1.0
1.0
1.0
1.0
1.0
1.0
0.6956249250692302
1.0
1.0
1.0
1.0
1.0
1.0
1.0
1.0
1.0
1.0
1.0
1.0
1.0
1.0
1.0
1.0
1.0
1.0
1.0
1.0
1.0
1.0
1.0
1.0
1.0
1.0
1.0
1.0
1.0
1.0
1.0
1.0
1.0
1.0
1.0
1.0
0.3515146461005478
1.0
1.0
1.0
1.0
1.0
1.0
1.0
1.0
1.0
1.0
1.0
1.0
1.0
1.0
1.0
1.0
1.0
1.0
1.0
1.0
1.0
1.0
1.0
1.0
1.0
1.0
1.0
1.0
1.0
1.0
1.0
1.0
1.0
1.0
1.0
1.0
1.0
1.0
1.0
1.0
1.0
1.0
1.0
1.0
1.0
1.0
1.0
1.0
1.0
1.0
1.0
1.0
1.0
1.0
1.0
1.0
1.0
1.0
1.0
1.0
1.0
1.0
1.0
1.0
1.0
1.0
1.0
1.0
1.0
1.0
1.0
1.0
1.0
1.0
1.0
1.0
1.0
1.0
1.0
1.0
1.0
1.0
1.0
1.0
1.0
1.0
1.0
1.0
1.0
1.0
1.0
1.0
1.0
1.0
1.0
1.0
1.0
1.0
1.0
1.0
1.0
1.0
1.0
1.0
1.0
0.6963961905269649
1.0
1.0
1.0
1.0
1.0
1.0
1.0
1.0
1.0
1.0
1.0
1.0
1.0
1.0
1.0
1.0
1.0
1.0
