-0.6451763784140016
-0.6462168594171808
-0.6459080600926012
-0.6459328378230782
-0.5856159221260735
-0.441410484906508
-0.6459309253641967
-0.6458972939783537
-0.6467073033061468
-0.6440303820111369
-0.6457607305730035
-0.6464014791933376
-0.6465460979347907
-0.6463075571135725
-0.645741824327505
-0.6394584187488044
-0.6336021282137271
-0.6456850727694123
-0.6096809508477742
-0.29697417121286573
-0.6454900546992846
-0.5951009781544441
-0.6456846479077054
-0.37950336522426137
-0.6358357140436555
-0.6462294282329536
-0.6459520076553337
-0.5966928298624684
-0.6453416715059086
-0.25315786706926025
-0.602530746471668
-0.6459067064041362
-0.6459213411482532
-0.6459006575609947
-0.6461175918865585
-0.4042194873364839
-0.4850791197813396
-0.4711240551445479
-0.5330668470837935
-0.6456760149349339
-0.6252594728253977
-0.6465112183263704
-0.6459572850222132
-0.5173810157754692
-0.3411324190117583
-0.645619028389139
-0.5208064882371425
-0.34284052165018714
-0.4346763784797603
-0.6456504506658358
-0.6459060020775991
-0.646502285301529
-0.6216477518272625
-0.6461538126629661
-0.6460764321555376
-0.645918207406083
-0.4899840389178024
-0.6504020600176015
-0.6032604172881573
-0.624959630588422
-0.6461278346317598
-0.6463043317337314
-0.6459621973359231
-0.6459680485196746
-0.646511253101551
-0.5261010784294022
-0.641295451328699
-0.5420590333886037
-0.667165624940452
-0.5227595244724241
-0.6455223290965528
-0.646141094483485
-0.6458496375879037
-0.6419865377432974
-0.6458962931655273
-0.07485359099183905
-0.6346808512957437
-0.64576076754089
-0.6466173377443631
-0.6300022635044311
-0.6457408743643289
-0.6461472336578779
-0.6269598211022844
-0.6466323271863057
-0.6463340408097195
-0.6415955137545517
-0.6372226525686652
-0.6460389051475142
-0.6459052937987956
-0.6457484940383582
-0.6459092727367487
-0.6052642429573234
-0.6461669160538761
-0.6463649826492256
-0.6574825927616316
-0.6460322071401218
-0.6465214205225281
-0.2929663977581465
-0.6462558093628995
-0.6675617604773508
-0.645714741568313
-0.3734959675205083
-0.6463765011361503
-0.3674853874936379
-0.6452059929232685
-0.6463803133295313
-0.6225977833136239
-0.6854641937361781
-0.6277961615968671
-0.6456421760201867
-0.5934140220357835
-0.6465401427863195
-0.6458996475091938
-0.5544606824833946
-0.6459511834955516
-0.645790503811857
-0.6453991673487826
-0.6465748538649658
-0.646333380057158
-0.6424629530363063
-0.6458805154331999
-0.6461399516567521
-0.6463084154036173
-0.6461551958497112
-0.6461470725299117
-0.6462273928027247
-0.6417737393129903
-0.4093419490692099
-0.6187678792776573
-0.645924890982393
-0.6991658206419483
-0.646029636702413
-0.6996897312345527
-0.6455398206521382
-0.2074313126097928
-0.646169040510266
-0.6461668474314944
-0.6461272796169596
-0.6461690411548681
-0.6457893355036107
-0.6461064979514302
-0.6461281970079295
-0.6463339904566854
-0.6466141452800771
-0.6418862365782658
-0.6461982580968941
-0.6456574583880208
-0.6461054469932479
-0.39407345053509146
-0.5003749433361042
-0.6461404896463706
-0.6456671947876227
-0.6457893355036042
-0.6457699228018892
-0.5035596580395764
-0.6456205056036685
-0.6464665124375143
-0.645900003253177
-0.6470268621076936
-0.33860602605249474
-0.6457200881247378
-0.45722325593592816
-0.6338835702816343
-0.6283687667036236
-0.6441210345893034
-0.6461414026456581
-0.6459001550544243
-0.6457918325920367
-0.6458837525765452
-0.6458634514829609
-0.6461028811272856
-0.6459158054640172
-0.6463894328629191
-0.4462984765198286
-0.6461578682170631
-0.6461146254806297
-0.5480015265689654
-0.6458715431427522
-0.6461281970079289
-0.5244828657860443
-0.6435777134966473
-0.6425168271417618
-0.6457924154457919
-0.6459520074783636
-0.6461652559290305
-0.6271260144411974
-0.6178611841296759
-0.6458715428833481
-0.6459984107991023
-0.6173405367625789
-0.6424512648595662
-0.6461600197334463
-0.5348777181516641
-0.6459202584889052
-0.6459278580591825
-0.6457908147659037
-0.6420562040200657
-0.646280866293897
-0.6463327861082437
-0.6368981070530907
-0.6464126841548521
-0.6460266934390224
-0.6414001323542899
-0.6458967943353369
-0.6193504625905374
-0.6463675861451956
-0.6461419624929614
-0.5479876412315192
-0.646148434673305
-0.6461477904947545
-0.6461276886778344
-0.6455238831506931
-0.646145756488923
-0.6429462912555974
-0.6458885443682835
-0.6476652085139515
-0.6455772901880238
-0.5626780635947115
-0.6465309356004865
-0.64589679428425
-0.646364982649149
-0.6451606962876121
-0.6300836930201268
-0.40004735732391566
-0.6491932770992838
-0.6465932301455437
-0.645345249259381
-0.6466759652846115
-0.6449835587186945
-0.37450433355232937
-0.6459184186604662
-0.6463649825290406
-0.6461540086803987
-0.6457986070698809
-0.35668185503753413
-0.6459605020653093
-0.6462564957014768
-0.6531751855874168
-0.4143691905116287
-0.6403420141591669
-0.6459436390339686
-0.6456649769953694
-0.6452142520162435
-0.6116150575646064
-0.6456614767085351
-0.6460266934390224
-0.3732826031487417
-0.6210000863707584
-0.6460899001498087
-0.4420279604038131
-0.6461261744616569
-0.6461193003400559
-0.646034038610288
-0.6380912215974427
-0.6463789418501314
-0.2980124904910368
-0.6099301974992644
-0.6465681411539131
-0.6465309355971778
-0.6461289986393033
-0.6458978351343855
-0.6465522753195931
-0.6458456609208715
-0.6456734617196109
-0.6456504249145465
-0.6464821234520489
-0.5903807718036367
-0.5492903274135448
-0.6461214506599627
-0.6458419093572094
-0.6459984412116094
-0.6455198816510259
-0.6374193946892248
-0.6461683448707929
-0.6413083527963237
-0.6458477362850354
-0.45000972130060557
-0.5375004319644143
-0.35707762200719206
-0.6232292094401328
-0.43332000207539983
-0.4322835350153748
-0.4546988813911226
-0.6455932484227721
-0.6461432270493799
-0.3110798988063586
-0.6883343898945596
-0.6417457238080397
-0.6459461091361592
-0.6464928233063169
-0.6464126844308211
-0.6463746331506355
-0.5880255366569773
-0.5271704465764432
-0.46528163819012347
-0.5978504901916237
-0.6461207618853496
-0.5292383826393992
-0.6346276718287471
-0.574815519229582
-0.6466173377443631
-0.6464818229742697
-0.6460104418570674
-0.6440260015278739
-0.6462042420639058
-0.5354078635073154
-0.46620122658939683
-0.6465772374465176
-0.6460306547440107
1.0
1.0
1.0
1.0
1.0
1.0
1.0
1.0
1.0
1.0
1.0
1.0
1.0
1.0
1.0
1.0
1.0
1.0
1.0
1.0
1.0
1.0
1.0
1.0
1.0
1.0
1.0
1.0
1.0
1.0
1.0
1.0
1.0
1.0
1.0
1.0
1.0
1.0
1.0
1.0
1.0
1.0
1.0
1.0
1.0
1.0
1.0
1.0
1.0
1.0
1.0
1.0
1.0
1.0
1.0
1.0
1.0
1.0
1.0
1.0
1.0
1.0
1.0
1.0
1.0
1.0
1.0
1.0
1.0
1.0
1.0
1.0
1.0
1.0
1.0
1.0
1.0
1.0
1.0
1.0
1.0
1.0
1.0
1.0
1.0
1.0
1.0
1.0
1.0
1.0
1.0
1.0
1.0
1.0
1.0
1.0
1.0
1.0
1.0
1.0
1.0
1.0
1.0
1.0
1.0
1.0
1.0
1.0
1.0
1.0
1.0
1.0
1.0
1.0
1.0
1.0
1.0
1.0
1.0
1.0
1.0
1.0
1.0
1.0
1.0
1.0
1.0
1.0
1.0
1.0
1.0
1.0
1.0
1.0
1.0
1.0
1.0
1.0
1.0
1.0
1.0
1.0
1.0
1.0
1.0
1.0
1.0
1.0
1.0
1.0
1.0
1.0
1.0
1.0
1.0
1.0
1.0
1.0
1.0
1.0
1.0
1.0
1.0
1.0
1.0
1.0
1.0
1.0
1.0
1.0
1.0
1.0
1.0
1.0
1.0
1.0
1.0
1.0
1.0
1.0
1.0
1.0
1.0
1.0
1.0
1.0
1.0
