-0.4828589588827408
-0.6058932548260736
-0.5918953562269051
-0.6062352164123699
-0.4697226464082186
-0.604782314364239
-0.10313440249138342
-0.6059326791106925
-0.5766738321174917
-0.6022754547068866
-0.6059767416291562
-0.6060083514971472
-0.6055665748064181
-0.605472247460678
-0.6058020200296541
-0.5729580844246432
-0.604573665204958
-0.6058435307200605
-0.6025541216909598
-0.6050390803536924
-0.6057797088502052
-0.4847822486696663
-0.5880898344868905
-0.49240797642090633
-0.6053278139050978
-0.5862652913672151
-0.606209316506071
-0.5707990906307181
-0.6065009797829087
-0.6057422298915954
-0.2865538441596832
-0.6057798322070581
-0.6059179954508579
-0.5525346354410099
-0.6056903435289198
-0.6011725152114058
-0.6056143619576145
-0.6060361883448291
-0.5253508876474396
-0.6058403340007329
-0.5761979762903066
-0.615308925261427
-0.6058147314768543
-0.6053143298500168
-0.608617081889775
-0.6056827662983753
-0.5164430347551056
-0.6056182065810977
-0.5039323946072728
-0.5892899891881657
-0.6058732828861801
-0.6056047359102741
-0.5770492306781714
-0.5164933750839994
-0.6059080352382562
-0.6058265178367572
-0.605441116439555
-0.6032441415845888
-0.6059422770573983
-0.3090408862148438
-0.6053478251664205
-0.4790784494600777
-0.605948394969998
-0.6059166493333152
-0.6055322613820436
-0.6062364776507824
-0.2853705728105277
-0.6060491946132021
-0.6058008484561866
-0.605908044938295
-0.6054371332899371
-0.605909303127251
-0.6058036094951458
-0.6058175288457215
-0.6053851101141385
-0.6064880650644465
-0.5796914743237442
-0.4873249564271114
-0.5165017263690453
-0.606068160462211
-0.5890264646035098
-0.6055668388628687
-0.505005010764261
-0.5069192473155236
-0.6054342944339579
-0.6032595255422555
-0.4868285470790579
-0.6053861902930915
-0.6057380526783164
-0.6053288496343828
-0.6053288495270484
-0.6058847632179717
-0.43221461216322704
-0.6053402859960961
-0.5990962401742768
-0.6058777731515577
-0.605801713634172
-0.605421856479472
-0.5674620409023932
-0.6059742357991736
-0.6058003197178476
-0.6050036441451537
-0.6055361432605391
-0.6058910696620461
-0.6056131915842956
-0.6058675771976032
-0.6053321244420011
-0.6068536194343156
-0.605053244311882
-0.6059689245038467
-0.5468682185172034
-0.6059584666821686
-0.4965079474816694
-0.6059156822832727
-0.605873527148004
-0.5609445615221901
-0.3217137862951863
-0.3107857019344923
-0.605838398596878
-0.34129402073285553
-0.6060391838776736
-0.6012693842946673
-0.6054705411625025
-0.6059272193899317
-0.5174857337431332
-0.5812209929387462
-0.6016550734836189
-0.60573772238543
-0.6058296137268007
-0.6058529864184826
-0.28504468085056234
-0.6053232905544853
-0.3314900967358516
-0.35656367728204635
-0.16272725968633503
-0.5769771818766769
-0.6059834145387526
-0.25867183841232655
-0.5953260393698934
-0.5287978464302581
-0.10956426384000027
-0.6059167212931806
-0.6040711242319388
-0.5817361637376872
-0.605735392593958
-0.6062115497004218
-0.413433549769706
-0.6053079675773635
-0.6058844468800816
-0.6034954608845104
-0.5141861181175604
-0.606235113773344
-0.6039521587228511
-0.34743308800420625
-0.39196868869868384
-0.6016175771005341
-0.42202840534303565
-0.3818977572969845
-0.4951241577046843
-0.6054777452003332
-0.6059411599197206
-0.6051488416213828
-0.30491435489296703
-0.6054445204210218
-0.6059001851027854
-0.5451923911456984
-0.6057988574153756
-0.6035279430805605
-0.6053325103081943
-0.5981090186763466
-0.6043341889759275
-0.6058067333737991
-0.4137819267190022
-0.30795875619128815
-0.16592699225094942
-0.5546496631739591
-0.10881004201124506
-0.6052163939314478
-0.5658644204623763
-0.6055335318584955
-0.6057522623722523
-0.6062094135129267
-0.3922065553903708
-0.39538331084798634
-0.3829761103640455
-0.6059032374789131
-0.3648437448016997
-0.6059338764131252
-0.6056903799151719
-0.4151548849017049
-0.46365911123625647
-0.605934301258031
-0.6055244757869502
-0.3492030138836004
-0.605946010351871
-0.5672841463064666
-0.3569136918230892
-0.6058609022669463
-0.6059454516977312
-0.6058163831646157
-0.6059185576122201
-0.6017383499715927
-0.5702976896694383
-0.6036331494914594
-0.673149539335957
-0.5840808612529673
-0.3322798772312237
-0.6058811874485076
-0.6053856419199006
-0.6058907502208757
-0.4423800180340073
-0.6053329395541852
-0.605976741456424
-0.6055174947983105
-0.6059549027852308
-0.6058872122299446
-0.605975296309843
-0.6060384782511833
-0.6053149835017595
-0.6059624043072889
-0.6061327145563247
-0.4481711135811006
-0.6051696687668378
-0.6062797233746315
-0.6059177392819002
-0.6057391542752324
-0.6056193582604149
-0.5934786940109426
-0.5901283341058198
-0.605562579522174
-0.6058017136911301
-0.6060365433166097
-0.6059025554928755
-0.6066155118090167
-0.6053805788613937
-0.3724197147293442
-0.6280676824755584
-0.5615327092756672
-0.5887009012765554
-0.5963811370077643
-0.6058918377585112
-0.6062797252272616
-0.16937553099826644
-0.6058836830379106
-0.6059015799335385
-0.5648843780574303
-0.5158802133297726
-0.605922491342988
-0.41294605835632847
-0.6055322613742334
-0.6055106555052283
-0.6059251699584549
-0.6016259001506543
-0.1572220523026477
-0.6058150282546326
-0.4694688538889309
-0.6059088331721627
-0.4732064554968277
-0.6057540164239726
-0.3724688871559087
-0.6010123926057079
-0.6053506512112177
-0.5615506312723573
-0.604982633745002
-0.4108293546392343
-0.6058986174788908
-0.6055617766749657
-0.5841784589206223
-0.6054480791586704
-0.38038043727278736
-0.6058403252545154
-0.605723096366303
-0.6029738108444356
-0.504076543768454
-0.6059238751167895
-0.600618394622837
-0.594376312031119
-0.6059498028320283
-0.6056386918111831
-0.6058226322428746
-0.41277791804450026
-0.6058323654919886
-0.6058036094951458
-0.6052583985590686
-0.6059174985655473
-0.6054372536541494
-0.38750386127386954
-0.6058886787200782
-0.6057608351298936
-0.6058368018151147
-0.6059012680126851
-0.3804639518898866
-0.6053328365456521
-0.2546705609161367
-0.605833376627924
-0.6053687468266291
-0.6058239079936085
-0.6057176865343294
-0.49304647241584254
-0.6059050816721496
-0.20230603261512095
-0.6058267736159401
-0.6054621958130273
-0.6059080376408945
-0.6060760598140142
-0.6062834256314492
-0.5962311228944266
-0.2035176582705046
-0.5832898354384095
-0.5554915187594733
-0.6056891110955919
-0.6057987042763702
-0.6053882983574349
-0.6058867298936613
-0.6059539175594598
-0.6059076037675725
-0.5564143958773697
-0.605371586652601
-0.6052278537186649
-0.6059379276311403
-0.6484270469165367
-0.6056142988318337
-0.5413971036306393
-0.6059075530884649
-0.6059777584211804
-0.606726834696114
-0.6058163778125354
-0.5537790208740656
-0.47720142978884994
-0.6060146546420515
-0.6029588427146654
-0.6060595846205494
-0.6058488407326958
-0.6059032374789226
-0.6058896936904389
-0.6058739986132814
-0.6036074467023799
-0.6057591362638928
-0.6055382960389819
-0.6012127968746586
-0.6059603604750776
-0.2561158309465059
-0.5751886734296368
-0.19592444803032028
-0.6059295196794833
-0.6053168493501042
-0.6057015037505881
-0.364099026878169
-0.4346809345292325
-0.6055326767537442
-0.605372261730469
-0.5707991779868379
-0.605523840428058
-0.605986958184729
-0.6048767235125074
-0.3893410688090131
-0.6058988017781995
-0.6052834202175147
-0.6033187423909101
-0.6059112950269674
-0.6090979459963317
-0.6058502399383419
-0.2868960043619957
-0.6063110308646005
-0.5374284120333745
-0.6053288165516898
-0.6057429433295703
-0.6058544037789522
-0.6059184527102783
-0.6053397261238541
-0.6027257558382714
-0.605924705385456
-0.6057795406830837
-0.6054930927559459
-0.36652985389457
-0.6053674216977687
-0.6058215710952466
-0.607055808530287
-0.6058828161014813
-0.5916869344506167
-0.5908149212408802
-0.5696266807772906
-0.6053935810412878
-0.6052212342416541
-0.44433560137687195
-0.6064819733621334
-0.4982743655095653
-0.6104731097375111
-0.19747307993974964
-0.6060708257702326
-0.4020224696688275
-0.589963120252141
-0.5549299648925636
-0.6058938450416457
-0.18483969498464034
-0.6059095058884324
-0.6060416029633321
-0.5782161967880023
-0.6054232662581964
-0.6059256244225053
-0.6053325103081881
-0.6058926004851115
-0.6059209179860578
-0.6048208206221187
-0.6053291965016737
-0.49298963015943786
-0.6039084828073238
-0.5886364335404896
-0.6059564581588193
-0.5961134531001161
-0.6057616577380264
-0.6055161062403263
-0.4805885534020408
-0.6059452021546289
-0.26212647456000915
-0.6059192716603551
-0.6053727295788038
-0.6059352423223636
-0.605742943108054
-0.6061755256130514
-0.6059152074314562
-0.42385110172039775
-0.6060073429093178
-0.5967279764263042
-0.3802832572641086
-0.6056894454973707
-0.6057964417679274
-0.6059084678920413
-0.6055668525827749
-0.6056959105960518
-0.6060027447921752
-0.5955938652440633
-0.6029510914082457
-0.590234884880523
-0.6057202587597301
-0.6053333457998054
-0.12018131357346093
-0.3693715295999277
-0.5894733915102234
-0.3148267874791856
-0.1983266187123474
-0.6053613830093008
-0.605328849499636
-0.1641323864022878
-0.605814575477149
-0.6059966143380677
-0.6058323654919886
-0.6057492752970223
-0.6059869382586931
-0.597520572697209
-0.5987375340462264
-0.6058224114240965
-0.6053881583943598
-0.35867989786747206
-0.6059047226571597
-0.6058021718130981
-0.6057004842896975
-0.6053286008670374
-0.5836767995124027
-0.6059581663021395
-0.6058613720940479
-0.6053149841916812
-0.5303636763505652
-0.6055874286927924
-0.6059268758161004
-0.5985345610073838
-0.6056523081550867
-0.60523919842762
-0.5038818819015242
-0.6056165678621549
-0.6059176995232338
-0.6056900496715879
-0.5734742135160205
-0.6056850041931852
-0.39649874008929253
-0.605968898949129
-0.4223233087053548
-0.6022349659390761
1.0
1.0
1.0
1.0
1.0
1.0
1.0
1.0
1.0
1.0
1.0
1.0
1.0
1.0
1.0
1.0
1.0
1.0
1.0
1.0
1.0
1.0
1.0
1.0
1.0
1.0
1.0
1.0
1.0
1.0
1.0
1.0
1.0
1.0
1.0
1.0
1.0
1.0
1.0
1.0
1.0
1.0
1.0
1.0
1.0
0.517738227769748
1.0
1.0
1.0
1.0
1.0
1.0
1.0
1.0
1.0
1.0
1.0
1.0
1.0
1.0
1.0
1.0
1.0
1.0
1.0
1.0
1.0
1.0
1.0
1.0
1.0
1.0
1.0
1.0
1.0
1.0
1.0
1.0
1.0
1.0
1.0
1.0
1.0
1.0
1.0
1.0
1.0
1.0
1.0
1.0
1.0
1.0
1.0
1.0
1.0
1.0
1.0
1.0
1.0
1.0
1.0
1.0
1.0
0.8764804099162556
1.0
1.0
1.0
1.0
1.0
1.0
1.0
1.0
1.0
1.0
1.0
1.0
1.0
1.0
1.0
1.0
1.0
1.0
1.0
1.0
1.0
1.0
1.0
1.0
1.0
1.0
1.0
1.0
1.0
1.0
1.0
1.0
1.0
1.0
1.0
1.0
1.0
1.0
1.0
1.0
1.0
1.0
0.7183366167650943
1.0
1.0
1.0
1.0
1.0
1.0
1.0
1.0
1.0
1.0
1.0
1.0
1.0
1.0
1.0
1.0
1.0
1.0
1.0
1.0
1.0
1.0
1.0
1.0
1.0
1.0
1.0
1.0
1.0
1.0
1.0
1.0
1.0
1.0
1.0
1.0
1.0
1.0
1.0
1.0
1.0
0.7176201408256182
1.0
1.0
1.0
1.0
1.0
1.0
1.0
1.0
1.0
1.0
1.0
1.0
1.0
1.0
1.0
1.0
1.0
1.0
1.0
1.0
1.0
1.0
1.0
1.0
1.0
1.0
1.0
1.0
1.0
1.0
1.0
1.0
1.0
1.0
1.0
1.0
1.0
1.0
1.0
1.0
1.0
1.0
1.0
1.0
1.0
1.0
1.0
1.0
1.0
1.0
1.0
1.0
1.0
1.0
1.0
1.0
1.0
1.0
1.0
1.0
1.0
1.0
1.0
1.0
1.0
1.0
1.0
1.0
1.0
1.0
1.0
1.0
1.0
1.0
1.0
1.0
1.0
