-1.0
-1.0
-1.0
-1.0
-1.0
-0.37212311372745976
-1.0
-0.24802313822279945
-1.0
-0.28760730090972925
-1.0
-1.0
-1.0
-1.0
-1.0
-1.0
-1.0
-1.0
-1.0
-1.0
-1.0
-1.0
-0.5650030078762842
-1.0
-1.0
-1.0
-1.0
-1.0
-1.0
-1.0
-1.0
-0.3397875868152682
-1.0
-0.509171966545729
1.0
1.0
0.22569396031779929
1.0
1.0
1.0
1.0
0.06696150630319847
1.0
0.38055260811241537
1.0
0.11484922941376208
1.0
1.0
1.0
1.0
1.0
1.0
1.0
0.12505154442829133
0.04413272116723577
1.0
0.4977096044907163
0.1716610098802088
1.0
0.010609185141272922
0.05388206454629657
1.0
0.2941792624568813
0.005747716874174342
0.36889152677509673
1.0
0.14010389030506412
0.47400011783539236
0.25875425622018905
0.3896210736744627
1.0
0.053650222552200394
1.0
0.20555792707305928
0.05675113678254316
0.02624379434864622
1.0
1.0
1.0
0.12976829742022283
0.6120637422357301
0.011851023413856084
0.01884485609377559
0.04759345953436115
0.1226894098796775
1.0
0.4143009668207402
